  AssemblyInfo.obj : MSIL module encountered; incremental linking is disabled for MSIL; performing full link
CppCLR_WinformsProjekt.obj : error LNK2028: unresolved token (0A001143) "void __cdecl cv::imshow(class std::basic_string<char,struct std::char_traits<char>,class std::allocator<char> > const &,class cv::debug_build_guard::_InputArray const &)" (?imshow@cv@@$$FYAXAEBV?$basic_string@DU?$char_traits@D@std@@V?$allocator@D@2@@std@@AEBV_InputArray@debug_build_guard@1@@Z) referenced in function "private: void __clrcall CppCLRWinformsProjekt::Form1::button1_Click(class System::Object ^,class System::EventArgs ^)" (?button1_Click@Form1@CppCLRWinformsProjekt@@$$FAE$AAMXPE$AAVObject@System@@PE$AAVEventArgs@4@@Z)
CppCLR_WinformsProjekt.obj : error LNK2028: unresolved token (0A001173) "void __cdecl cv::cvtColor(class cv::debug_build_guard::_InputArray const &,class cv::debug_build_guard::_OutputArray const &,int,int)" (?cvtColor@cv@@$$FYAXAEBV_InputArray@debug_build_guard@1@AEBV_OutputArray@31@HH@Z) referenced in function "double * __cdecl CppCLRWinformsProjekt::haralik_features(class cv::Mat)" (?haralik_features@CppCLRWinformsProjekt@@$$FYAPEANVMat@cv@@@Z)
CppCLR_WinformsProjekt.obj : error LNK2028: unresolved token (0A001200) "class cv::debug_build_guard::_InputOutputArray const & __cdecl cv::noArray(void)" (?noArray@cv@@$$FYAAEBV_InputOutputArray@debug_build_guard@1@XZ) referenced in function "class cv::Mat __cdecl CppCLRWinformsProjekt::MatCoocAdd(class cv::Mat,int,class std::vector<int,class std::allocator<int> >,class std::vector<int,class std::allocator<int> >)" (?MatCoocAdd@CppCLRWinformsProjekt@@$$FYA?AVMat@cv@@V23@HV?$vector@HV?$allocator@H@std@@@std@@1@Z)
CppCLR_WinformsProjekt.obj : error LNK2028: unresolved token (0A001201) "void __cdecl cv::add(class cv::debug_build_guard::_InputArray const &,class cv::debug_build_guard::_InputArray const &,class cv::debug_build_guard::_OutputArray const &,class cv::debug_build_guard::_InputArray const &,int)" (?add@cv@@$$FYAXAEBV_InputArray@debug_build_guard@1@0AEBV_OutputArray@31@0H@Z) referenced in function "class cv::Mat __cdecl CppCLRWinformsProjekt::MatCoocAdd(class cv::Mat,int,class std::vector<int,class std::allocator<int> >,class std::vector<int,class std::allocator<int> >)" (?MatCoocAdd@CppCLRWinformsProjekt@@$$FYA?AVMat@cv@@V23@HV?$vector@HV?$allocator@H@std@@@std@@1@Z)
CppCLR_WinformsProjekt.obj : error LNK2001: unresolved external symbol "public: virtual void __cdecl cv::HOGDescriptor::setSVMDetector(class cv::debug_build_guard::_InputArray const &)" (?setSVMDetector@HOGDescriptor@cv@@UEAAXAEBV_InputArray@debug_build_guard@2@@Z)
CppCLR_WinformsProjekt.obj : error LNK2001: unresolved external symbol "public: virtual void __cdecl cv::HOGDescriptor::compute(class cv::debug_build_guard::_InputArray const &,class std::vector<float,class std::allocator<float> > &,class cv::Size_<int>,class cv::Size_<int>,class std::vector<class cv::Point_<int>,class std::allocator<class cv::Point_<int> > > const &)const " (?compute@HOGDescriptor@cv@@UEBAXAEBV_InputArray@debug_build_guard@2@AEAV?$vector@MV?$allocator@M@std@@@std@@V?$Size_@H@2@2AEBV?$vector@V?$Point_@H@cv@@V?$allocator@V?$Point_@H@cv@@@std@@@6@@Z)
CppCLR_WinformsProjekt.obj : error LNK2001: unresolved external symbol "public: virtual void __cdecl cv::HOGDescriptor::detect(class cv::debug_build_guard::_InputArray const &,class std::vector<class cv::Point_<int>,class std::allocator<class cv::Point_<int> > > &,double,class cv::Size_<int>,class cv::Size_<int>,class std::vector<class cv::Point_<int>,class std::allocator<class cv::Point_<int> > > const &)const " (?detect@HOGDescriptor@cv@@UEBAXAEBV_InputArray@debug_build_guard@2@AEAV?$vector@V?$Point_@H@cv@@V?$allocator@V?$Point_@H@cv@@@std@@@std@@NV?$Size_@H@2@2AEBV56@@Z)
CppCLR_WinformsProjekt.obj : error LNK2001: unresolved external symbol "public: virtual void __cdecl cv::HOGDescriptor::detect(class cv::debug_build_guard::_InputArray const &,class std::vector<class cv::Point_<int>,class std::allocator<class cv::Point_<int> > > &,class std::vector<double,class std::allocator<double> > &,double,class cv::Size_<int>,class cv::Size_<int>,class std::vector<class cv::Point_<int>,class std::allocator<class cv::Point_<int> > > const &)const " (?detect@HOGDescriptor@cv@@UEBAXAEBV_InputArray@debug_build_guard@2@AEAV?$vector@V?$Point_@H@cv@@V?$allocator@V?$Point_@H@cv@@@std@@@std@@AEAV?$vector@NV?$allocator@N@std@@@6@NV?$Size_@H@2@3AEBV56@@Z)
CppCLR_WinformsProjekt.obj : error LNK2001: unresolved external symbol "public: virtual void __cdecl cv::HOGDescriptor::detectMultiScale(class cv::debug_build_guard::_InputArray const &,class std::vector<class cv::Rect_<int>,class std::allocator<class cv::Rect_<int> > > &,double,class cv::Size_<int>,class cv::Size_<int>,double,double,bool)const " (?detectMultiScale@HOGDescriptor@cv@@UEBAXAEBV_InputArray@debug_build_guard@2@AEAV?$vector@V?$Rect_@H@cv@@V?$allocator@V?$Rect_@H@cv@@@std@@@std@@NV?$Size_@H@2@2NN_N@Z)
CppCLR_WinformsProjekt.obj : error LNK2001: unresolved external symbol "public: virtual void __cdecl cv::HOGDescriptor::detectMultiScale(class cv::debug_build_guard::_InputArray const &,class std::vector<class cv::Rect_<int>,class std::allocator<class cv::Rect_<int> > > &,class std::vector<double,class std::allocator<double> > &,double,class cv::Size_<int>,class cv::Size_<int>,double,double,bool)const " (?detectMultiScale@HOGDescriptor@cv@@UEBAXAEBV_InputArray@debug_build_guard@2@AEAV?$vector@V?$Rect_@H@cv@@V?$allocator@V?$Rect_@H@cv@@@std@@@std@@AEAV?$vector@NV?$allocator@N@std@@@6@NV?$Size_@H@2@3NN_N@Z)
CppCLR_WinformsProjekt.obj : error LNK2001: unresolved external symbol "public: virtual void __cdecl cv::HOGDescriptor::computeGradient(class cv::debug_build_guard::_InputArray const &,class cv::debug_build_guard::_InputOutputArray const &,class cv::debug_build_guard::_InputOutputArray const &,class cv::Size_<int>,class cv::Size_<int>)const " (?computeGradient@HOGDescriptor@cv@@UEBAXAEBV_InputArray@debug_build_guard@2@AEBV_InputOutputArray@42@1V?$Size_@H@2@2@Z)
CppCLR_WinformsProjekt.obj : error LNK2001: unresolved external symbol "public: virtual void __cdecl cv::HOGDescriptor::detectROI(class cv::debug_build_guard::_InputArray const &,class std::vector<class cv::Point_<int>,class std::allocator<class cv::Point_<int> > > const &,class std::vector<class cv::Point_<int>,class std::allocator<class cv::Point_<int> > > &,class std::vector<double,class std::allocator<double> > &,double,class cv::Size_<int>,class cv::Size_<int>)const " (?detectROI@HOGDescriptor@cv@@UEBAXAEBV_InputArray@debug_build_guard@2@AEBV?$vector@V?$Point_@H@cv@@V?$allocator@V?$Point_@H@cv@@@std@@@std@@AEAV56@AEAV?$vector@NV?$allocator@N@std@@@6@NV?$Size_@H@2@4@Z)
CppCLR_WinformsProjekt.obj : error LNK2001: unresolved external symbol "public: virtual void __cdecl cv::HOGDescriptor::detectMultiScaleROI(class cv::debug_build_guard::_InputArray const &,class std::vector<class cv::Rect_<int>,class std::allocator<class cv::Rect_<int> > > &,class std::vector<struct cv::DetectionROI,class std::allocator<struct cv::DetectionROI> > &,double,int)const " (?detectMultiScaleROI@HOGDescriptor@cv@@UEBAXAEBV_InputArray@debug_build_guard@2@AEAV?$vector@V?$Rect_@H@cv@@V?$allocator@V?$Rect_@H@cv@@@std@@@std@@AEAV?$vector@UDetectionROI@cv@@V?$allocator@UDetectionROI@cv@@@std@@@6@NH@Z)
CppCLR_WinformsProjekt.obj : error LNK2019: unresolved external symbol "class cv::debug_build_guard::_InputOutputArray const & __cdecl cv::noArray(void)" (?noArray@cv@@$$FYAAEBV_InputOutputArray@debug_build_guard@1@XZ) referenced in function "class cv::Mat __cdecl CppCLRWinformsProjekt::MatCoocAdd(class cv::Mat,int,class std::vector<int,class std::allocator<int> >,class std::vector<int,class std::allocator<int> >)" (?MatCoocAdd@CppCLRWinformsProjekt@@$$FYA?AVMat@cv@@V23@HV?$vector@HV?$allocator@H@std@@@std@@1@Z)
CppCLR_WinformsProjekt.obj : error LNK2019: unresolved external symbol "void __cdecl cv::add(class cv::debug_build_guard::_InputArray const &,class cv::debug_build_guard::_InputArray const &,class cv::debug_build_guard::_OutputArray const &,class cv::debug_build_guard::_InputArray const &,int)" (?add@cv@@$$FYAXAEBV_InputArray@debug_build_guard@1@0AEBV_OutputArray@31@0H@Z) referenced in function "class cv::Mat __cdecl CppCLRWinformsProjekt::MatCoocAdd(class cv::Mat,int,class std::vector<int,class std::allocator<int> >,class std::vector<int,class std::allocator<int> >)" (?MatCoocAdd@CppCLRWinformsProjekt@@$$FYA?AVMat@cv@@V23@HV?$vector@HV?$allocator@H@std@@@std@@1@Z)
CppCLR_WinformsProjekt.obj : error LNK2019: unresolved external symbol "void __cdecl cv::cvtColor(class cv::debug_build_guard::_InputArray const &,class cv::debug_build_guard::_OutputArray const &,int,int)" (?cvtColor@cv@@$$FYAXAEBV_InputArray@debug_build_guard@1@AEBV_OutputArray@31@HH@Z) referenced in function "double * __cdecl CppCLRWinformsProjekt::haralik_features(class cv::Mat)" (?haralik_features@CppCLRWinformsProjekt@@$$FYAPEANVMat@cv@@@Z)
CppCLR_WinformsProjekt.obj : error LNK2019: unresolved external symbol "void __cdecl cv::imshow(class std::basic_string<char,struct std::char_traits<char>,class std::allocator<char> > const &,class cv::debug_build_guard::_InputArray const &)" (?imshow@cv@@$$FYAXAEBV?$basic_string@DU?$char_traits@D@std@@V?$allocator@D@2@@std@@AEBV_InputArray@debug_build_guard@1@@Z) referenced in function "private: void __clrcall CppCLRWinformsProjekt::Form1::button1_Click(class System::Object ^,class System::EventArgs ^)" (?button1_Click@Form1@CppCLRWinformsProjekt@@$$FAE$AAMXPE$AAVObject@System@@PE$AAVEventArgs@4@@Z)
C:\Users\Alon\Desktop\??????\CppCLR_WinformsProjekt1\x64\Debug\CppCLR_WinformsProjekt1.exe : fatal error LNK1120: 17 unresolved externals
